digraph Tree {
node [shape=box, style="filled", color="black", fontname="helvetica"] ;
edge [fontname="helvetica"] ;
0 [label="TotalWorkingYears <= 1.5\ngini = 0.271\nsamples = 3528\nvalue = [2959, 569]", fillcolor="#ea995f"] ;
1 [label="BusinessTravel <= 1.5\ngini = 0.5\nsamples = 222\nvalue = [109, 113]", fillcolor="#f8fcfe"] ;
0 -> 1 [labeldistance=2.5, labelangle=45, headlabel="True"] ;
7 [label="WorkingTime <= 7.682\ngini = 0.488\nsamples = 184\nvalue = [106, 78]", fillcolor="#f8decb"] ;
1 -> 7 ;
9 [label="Age <= 25.0\ngini = 0.37\nsamples = 102\nvalue = [77, 25]", fillcolor="#edaa79"] ;
7 -> 9 ;
15 [label="YearsSinceLastPromotion <= 0.5\ngini = 0.494\nsamples = 54\nvalue = [30, 24]", fillcolor="#fae6d7"] ;
9 -> 15 ;
47 [label="EducationField <= 0.5\ngini = 0.454\nsamples = 46\nvalue = [30, 16]", fillcolor="#f3c4a3"] ;
15 -> 47 ;
49 [label="JobInvolvement <= 3.5\ngini = 0.375\nsamples = 40\nvalue = [30, 10]", fillcolor="#eeab7b"] ;
47 -> 49 ;
127 [label="MonthlyIncome <= 29685.0\ngini = 0.307\nsamples = 37\nvalue = [30, 7]", fillcolor="#eb9e67"] ;
49 -> 127 ;
129 [label="WorkingTime <= 6.781\ngini = 0.498\nsamples = 15\nvalue = [8, 7]", fillcolor="#fcefe6"] ;
127 -> 129 ;
131 [label="gini = 0.0\nsamples = 6\nvalue = [0, 6]", fillcolor="#399de5"] ;
129 -> 131 ;
132 [label="gini = 0.198\nsamples = 9\nvalue = [8, 1]", fillcolor="#e89152"] ;
129 -> 132 ;
130 [label="gini = 0.0\nsamples = 22\nvalue = [22, 0]", fillcolor="#e58139"] ;
127 -> 130 ;
128 [label="gini = 0.0\nsamples = 3\nvalue = [0, 3]", fillcolor="#399de5"] ;
49 -> 128 ;
50 [label="gini = 0.0\nsamples = 6\nvalue = [0, 6]", fillcolor="#399de5"] ;
47 -> 50 ;
48 [label="gini = 0.0\nsamples = 8\nvalue = [0, 8]", fillcolor="#399de5"] ;
15 -> 48 ;
16 [label="gini = 0.041\nsamples = 48\nvalue = [47, 1]", fillcolor="#e6843d"] ;
9 -> 16 ;
10 [label="TrainingTimesLastYear <= 1.5\ngini = 0.457\nsamples = 82\nvalue = [29, 53]", fillcolor="#a5d3f3"] ;
7 -> 10 ;
19 [label="gini = 0.0\nsamples = 9\nvalue = [9, 0]", fillcolor="#e58139"] ;
10 -> 19 ;
20 [label="MonthlyIncome <= 22325.0\ngini = 0.398\nsamples = 73\nvalue = [20, 53]", fillcolor="#84c2ef"] ;
10 -> 20 ;
51 [label="gini = 0.0\nsamples = 5\nvalue = [5, 0]", fillcolor="#e58139"] ;
20 -> 51 ;
52 [label="PercentSalaryHike <= 24.0\ngini = 0.344\nsamples = 68\nvalue = [15, 53]", fillcolor="#71b9ec"] ;
20 -> 52 ;
125 [label="BusinessTravel <= 0.5\ngini = 0.301\nsamples = 65\nvalue = [12, 53]", fillcolor="#66b3eb"] ;
52 -> 125 ;
139 [label="EnvironmentSatisfaction <= 2.5\ngini = 0.469\nsamples = 8\nvalue = [5, 3]", fillcolor="#f5cdb0"] ;
125 -> 139 ;
141 [label="gini = 0.0\nsamples = 3\nvalue = [0, 3]", fillcolor="#399de5"] ;
139 -> 141 ;
142 [label="gini = 0.0\nsamples = 5\nvalue = [5, 0]", fillcolor="#e58139"] ;
139 -> 142 ;
140 [label="gini = 0.215\nsamples = 57\nvalue = [7, 50]", fillcolor="#55abe9"] ;
125 -> 140 ;
126 [label="gini = 0.0\nsamples = 3\nvalue = [3, 0]", fillcolor="#e58139"] ;
52 -> 126 ;
8 [label="Age <= 34.5\ngini = 0.145\nsamples = 38\nvalue = [3, 35]", fillcolor="#4aa5e7"] ;
1 -> 8 ;
137 [label="gini = 0.054\nsamples = 36\nvalue = [1, 35]", fillcolor="#3fa0e6"] ;
8 -> 137 ;
138 [label="gini = 0.0\nsamples = 2\nvalue = [2, 0]", fillcolor="#e58139"] ;
8 -> 138 ;
2 [label="WorkingTime <= 8.176\ngini = 0.238\nsamples = 3306\nvalue = [2850, 456]", fillcolor="#e99559"] ;
0 -> 2 [labeldistance=2.5, labelangle=-45, headlabel="False"] ;
3 [label="WorkLifeBalance <= 1.6\ngini = 0.163\nsamples = 2434\nvalue = [2216, 218]", fillcolor="#e88d4c"] ;
2 -> 3 ;
25 [label="YearsWithCurrManager <= 0.5\ngini = 0.381\nsamples = 133\nvalue = [99, 34]", fillcolor="#eeac7d"] ;
3 -> 25 ;
27 [label="Age <= 44.0\ngini = 0.415\nsamples = 17\nvalue = [5, 12]", fillcolor="#8bc6f0"] ;
25 -> 27 ;
29 [label="gini = 0.0\nsamples = 12\nvalue = [0, 12]", fillcolor="#399de5"] ;
27 -> 29 ;
30 [label="gini = 0.0\nsamples = 5\nvalue = [5, 0]", fillcolor="#e58139"] ;
27 -> 30 ;
28 [label="YearsSinceLastPromotion <= 6.0\ngini = 0.307\nsamples = 116\nvalue = [94, 22]", fillcolor="#eb9e67"] ;
25 -> 28 ;
93 [label="JobSatisfaction <= 1.5\ngini = 0.228\nsamples = 99\nvalue = [86, 13]", fillcolor="#e99457"] ;
28 -> 93 ;
97 [label="StockOptionLevel <= 1.5\ngini = 0.458\nsamples = 31\nvalue = [20, 11]", fillcolor="#f3c6a6"] ;
93 -> 97 ;
99 [label="MonthlyIncome <= 107000.0\ngini = 0.227\nsamples = 23\nvalue = [20, 3]", fillcolor="#e99457"] ;
97 -> 99 ;
159 [label="gini = 0.091\nsamples = 21\nvalue = [20, 1]", fillcolor="#e68743"] ;
99 -> 159 ;
160 [label="gini = 0.0\nsamples = 2\nvalue = [0, 2]", fillcolor="#399de5"] ;
99 -> 160 ;
100 [label="gini = 0.0\nsamples = 8\nvalue = [0, 8]", fillcolor="#399de5"] ;
97 -> 100 ;
98 [label="TotalWorkingYears <= 2.5\ngini = 0.057\nsamples = 68\nvalue = [66, 2]", fillcolor="#e6853f"] ;
93 -> 98 ;
123 [label="gini = 0.0\nsamples = 2\nvalue = [0, 2]", fillcolor="#399de5"] ;
98 -> 123 ;
124 [label="gini = 0.0\nsamples = 66\nvalue = [66, 0]", fillcolor="#e58139"] ;
98 -> 124 ;
94 [label="JobSatisfaction <= 2.5\ngini = 0.498\nsamples = 17\nvalue = [8, 9]", fillcolor="#e9f4fc"] ;
28 -> 94 ;
95 [label="gini = 0.0\nsamples = 6\nvalue = [6, 0]", fillcolor="#e58139"] ;
94 -> 95 ;
96 [label="JobSatisfaction <= 3.5\ngini = 0.298\nsamples = 11\nvalue = [2, 9]", fillcolor="#65b3eb"] ;
94 -> 96 ;
163 [label="gini = 0.0\nsamples = 9\nvalue = [0, 9]", fillcolor="#399de5"] ;
96 -> 163 ;
164 [label="gini = 0.0\nsamples = 2\nvalue = [2, 0]", fillcolor="#e58139"] ;
96 -> 164 ;
26 [label="JobSatisfaction <= 1.7\ngini = 0.147\nsamples = 2301\nvalue = [2117, 184]", fillcolor="#e78c4a"] ;
3 -> 26 ;
107 [label="NumCompaniesWorked <= 4.5\ngini = 0.242\nsamples = 454\nvalue = [390, 64]", fillcolor="#e99659"] ;
26 -> 107 ;
109 [label="YearsSinceLastPromotion <= 14.5\ngini = 0.182\nsamples = 345\nvalue = [310, 35]", fillcolor="#e88f4f"] ;
107 -> 109 ;
145 [label="DistanceFromHome <= 13.5\ngini = 0.17\nsamples = 341\nvalue = [309, 32]", fillcolor="#e88e4e"] ;
109 -> 145 ;
147 [label="gini = 0.102\nsamples = 259\nvalue = [245, 14]", fillcolor="#e68844"] ;
145 -> 147 ;
148 [label="DistanceFromHome <= 19.5\ngini = 0.343\nsamples = 82\nvalue = [64, 18]", fillcolor="#eca471"] ;
145 -> 148 ;
149 [label="YearsSinceLastPromotion <= 4.0\ngini = 0.499\nsamples = 31\nvalue = [15, 16]", fillcolor="#f3f9fd"] ;
148 -> 149 ;
151 [label="TrainingTimesLastYear <= 5.5\ngini = 0.363\nsamples = 21\nvalue = [5, 16]", fillcolor="#77bced"] ;
149 -> 151 ;
153 [label="WorkingTime <= 6.755\ngini = 0.198\nsamples = 18\nvalue = [2, 16]", fillcolor="#52a9e8"] ;
151 -> 153 ;
155 [label="gini = 0.0\nsamples = 2\nvalue = [2, 0]", fillcolor="#e58139"] ;
153 -> 155 ;
156 [label="gini = 0.0\nsamples = 16\nvalue = [0, 16]", fillcolor="#399de5"] ;
153 -> 156 ;
154 [label="gini = 0.0\nsamples = 3\nvalue = [3, 0]", fillcolor="#e58139"] ;
151 -> 154 ;
152 [label="gini = 0.0\nsamples = 10\nvalue = [10, 0]", fillcolor="#e58139"] ;
149 -> 152 ;
150 [label="gini = 0.075\nsamples = 51\nvalue = [49, 2]", fillcolor="#e68641"] ;
148 -> 150 ;
146 [label="gini = 0.375\nsamples = 4\nvalue = [1, 3]", fillcolor="#7bbeee"] ;
109 -> 146 ;
110 [label="MonthlyIncome <= 26605.0\ngini = 0.391\nsamples = 109\nvalue = [80, 29]", fillcolor="#eeaf81"] ;
107 -> 110 ;
111 [label="Age <= 36.0\ngini = 0.375\nsamples = 16\nvalue = [4, 12]", fillcolor="#7bbeee"] ;
110 -> 111 ;
157 [label="gini = 0.0\nsamples = 10\nvalue = [0, 10]", fillcolor="#399de5"] ;
111 -> 157 ;
158 [label="gini = 0.444\nsamples = 6\nvalue = [4, 2]", fillcolor="#f2c09c"] ;
111 -> 158 ;
112 [label="WorkingTime <= 7.707\ngini = 0.299\nsamples = 93\nvalue = [76, 17]", fillcolor="#eb9d65"] ;
110 -> 112 ;
113 [label="DistanceFromHome <= 1.5\ngini = 0.188\nsamples = 76\nvalue = [68, 8]", fillcolor="#e89050"] ;
112 -> 113 ;
133 [label="TrainingTimesLastYear <= 2.5\ngini = 0.5\nsamples = 10\nvalue = [5, 5]", fillcolor="#ffffff"] ;
113 -> 133 ;
135 [label="gini = 0.0\nsamples = 5\nvalue = [0, 5]", fillcolor="#399de5"] ;
133 -> 135 ;
136 [label="gini = 0.0\nsamples = 5\nvalue = [5, 0]", fillcolor="#e58139"] ;
133 -> 136 ;
134 [label="gini = 0.087\nsamples = 66\nvalue = [63, 3]", fillcolor="#e68742"] ;
113 -> 134 ;
114 [label="YearsAtCompany <= 7.5\ngini = 0.498\nsamples = 17\nvalue = [8, 9]", fillcolor="#e9f4fc"] ;
112 -> 114 ;
119 [label="PercentSalaryHike <= 20.5\ngini = 0.375\nsamples = 12\nvalue = [3, 9]", fillcolor="#7bbeee"] ;
114 -> 119 ;
121 [label="gini = 0.0\nsamples = 9\nvalue = [0, 9]", fillcolor="#399de5"] ;
119 -> 121 ;
122 [label="gini = 0.0\nsamples = 3\nvalue = [3, 0]", fillcolor="#e58139"] ;
119 -> 122 ;
120 [label="gini = 0.0\nsamples = 5\nvalue = [5, 0]", fillcolor="#e58139"] ;
114 -> 120 ;
108 [label="BusinessTravel <= 1.5\ngini = 0.121\nsamples = 1847\nvalue = [1727, 120]", fillcolor="#e78a47"] ;
26 -> 108 ;
167 [label="YearsAtCompany <= 29.5\ngini = 0.097\nsamples = 1490\nvalue = [1414, 76]", fillcolor="#e68844"] ;
108 -> 167 ;
195 [label="gini = 0.092\nsamples = 1477\nvalue = [1406, 71]", fillcolor="#e68743"] ;
167 -> 195 ;
196 [label="gini = 0.473\nsamples = 13\nvalue = [8, 5]", fillcolor="#f5d0b5"] ;
167 -> 196 ;
168 [label="Age <= 23.0\ngini = 0.216\nsamples = 357\nvalue = [313, 44]", fillcolor="#e99355"] ;
108 -> 168 ;
169 [label="gini = 0.0\nsamples = 5\nvalue = [0, 5]", fillcolor="#399de5"] ;
168 -> 169 ;
170 [label="Age <= 31.5\ngini = 0.197\nsamples = 352\nvalue = [313, 39]", fillcolor="#e89152"] ;
168 -> 170 ;
171 [label="MonthlyIncome <= 26440.0\ngini = 0.38\nsamples = 90\nvalue = [67, 23]", fillcolor="#eeac7d"] ;
170 -> 171 ;
173 [label="TotalWorkingYears <= 8.5\ngini = 0.391\nsamples = 15\nvalue = [4, 11]", fillcolor="#81c1ee"] ;
171 -> 173 ;
187 [label="gini = 0.0\nsamples = 9\nvalue = [0, 9]", fillcolor="#399de5"] ;
173 -> 187 ;
188 [label="gini = 0.444\nsamples = 6\nvalue = [4, 2]", fillcolor="#f2c09c"] ;
173 -> 188 ;
174 [label="Age <= 29.5\ngini = 0.269\nsamples = 75\nvalue = [63, 12]", fillcolor="#ea995f"] ;
171 -> 174 ;
175 [label="gini = 0.0\nsamples = 49\nvalue = [49, 0]", fillcolor="#e58139"] ;
174 -> 175 ;
176 [label="WorkingTime <= 6.61\ngini = 0.497\nsamples = 26\nvalue = [14, 12]", fillcolor="#fbede3"] ;
174 -> 176 ;
177 [label="gini = 0.153\nsamples = 12\nvalue = [11, 1]", fillcolor="#e78c4b"] ;
176 -> 177 ;
178 [label="MaritalStatus <= 0.5\ngini = 0.337\nsamples = 14\nvalue = [3, 11]", fillcolor="#6fb8ec"] ;
176 -> 178 ;
179 [label="gini = 0.0\nsamples = 11\nvalue = [0, 11]", fillcolor="#399de5"] ;
178 -> 179 ;
180 [label="gini = 0.0\nsamples = 3\nvalue = [3, 0]", fillcolor="#e58139"] ;
178 -> 180 ;
172 [label="EnvironmentSatisfaction <= 1.5\ngini = 0.115\nsamples = 262\nvalue = [246, 16]", fillcolor="#e78946"] ;
170 -> 172 ;
181 [label="PercentSalaryHike <= 12.0\ngini = 0.36\nsamples = 51\nvalue = [39, 12]", fillcolor="#eda876"] ;
172 -> 181 ;
183 [label="gini = 0.198\nsamples = 9\nvalue = [1, 8]", fillcolor="#52a9e8"] ;
181 -> 183 ;
184 [label="YearsSinceLastPromotion <= 10.5\ngini = 0.172\nsamples = 42\nvalue = [38, 4]", fillcolor="#e88e4e"] ;
181 -> 184 ;
185 [label="gini = 0.095\nsamples = 40\nvalue = [38, 2]", fillcolor="#e68843"] ;
184 -> 185 ;
186 [label="gini = 0.0\nsamples = 2\nvalue = [0, 2]", fillcolor="#399de5"] ;
184 -> 186 ;
182 [label="gini = 0.037\nsamples = 211\nvalue = [207, 4]", fillcolor="#e6833d"] ;
172 -> 182 ;
4 [label="TotalWorkingYears <= 8.5\ngini = 0.397\nsamples = 872\nvalue = [634, 238]", fillcolor="#efb083"] ;
2 -> 4 ;
5 [label="YearsAtCompany <= 2.5\ngini = 0.483\nsamples = 343\nvalue = [203, 140]", fillcolor="#f7d8c2"] ;
4 -> 5 ;
13 [label="TrainingTimesLastYear <= 1.0\ngini = 0.472\nsamples = 89\nvalue = [34, 55]", fillcolor="#b3daf5"] ;
5 -> 13 ;
17 [label="gini = 0.0\nsamples = 10\nvalue = [10, 0]", fillcolor="#e58139"] ;
13 -> 17 ;
18 [label="JobRole <= 0.5\ngini = 0.423\nsamples = 79\nvalue = [24, 55]", fillcolor="#8fc8f0"] ;
13 -> 18 ;
35 [label="JobLevel <= 3.5\ngini = 0.372\nsamples = 73\nvalue = [18, 55]", fillcolor="#7abdee"] ;
18 -> 35 ;
45 [label="Age <= 28.5\ngini = 0.241\nsamples = 57\nvalue = [8, 49]", fillcolor="#59ade9"] ;
35 -> 45 ;
189 [label="DistanceFromHome <= 6.0\ngini = 0.465\nsamples = 19\nvalue = [7, 12]", fillcolor="#acd6f4"] ;
45 -> 189 ;
191 [label="EnvironmentSatisfaction <= 2.5\ngini = 0.463\nsamples = 11\nvalue = [7, 4]", fillcolor="#f4c9aa"] ;
189 -> 191 ;
193 [label="gini = 0.0\nsamples = 4\nvalue = [0, 4]", fillcolor="#399de5"] ;
191 -> 193 ;
194 [label="gini = 0.0\nsamples = 7\nvalue = [7, 0]", fillcolor="#e58139"] ;
191 -> 194 ;
192 [label="gini = 0.0\nsamples = 8\nvalue = [0, 8]", fillcolor="#399de5"] ;
189 -> 192 ;
190 [label="gini = 0.051\nsamples = 38\nvalue = [1, 37]", fillcolor="#3ea0e6"] ;
45 -> 190 ;
46 [label="TrainingTimesLastYear <= 4.0\ngini = 0.469\nsamples = 16\nvalue = [10, 6]", fillcolor="#f5cdb0"] ;
35 -> 46 ;
101 [label="gini = 0.375\nsamples = 8\nvalue = [2, 6]", fillcolor="#7bbeee"] ;
46 -> 101 ;
102 [label="gini = 0.0\nsamples = 8\nvalue = [8, 0]", fillcolor="#e58139"] ;
46 -> 102 ;
36 [label="gini = 0.0\nsamples = 6\nvalue = [6, 0]", fillcolor="#e58139"] ;
18 -> 36 ;
14 [label="WorkLifeBalance <= 1.5\ngini = 0.445\nsamples = 254\nvalue = [169, 85]", fillcolor="#f2c09d"] ;
5 -> 14 ;
21 [label="gini = 0.0\nsamples = 9\nvalue = [0, 9]", fillcolor="#399de5"] ;
14 -> 21 ;
22 [label="JobSatisfaction <= 3.5\ngini = 0.428\nsamples = 245\nvalue = [169, 76]", fillcolor="#f1ba92"] ;
14 -> 22 ;
23 [label="DistanceFromHome <= 26.5\ngini = 0.482\nsamples = 158\nvalue = [94, 64]", fillcolor="#f7d7c0"] ;
22 -> 23 ;
37 [label="DistanceFromHome <= 19.0\ngini = 0.461\nsamples = 144\nvalue = [92, 52]", fillcolor="#f4c8a9"] ;
23 -> 37 ;
67 [label="MonthlyIncome <= 39105.0\ngini = 0.485\nsamples = 126\nvalue = [74, 52]", fillcolor="#f7dac4"] ;
37 -> 67 ;
69 [label="Age <= 43.0\ngini = 0.26\nsamples = 39\nvalue = [33, 6]", fillcolor="#ea985d"] ;
67 -> 69 ;
71 [label="gini = 0.0\nsamples = 33\nvalue = [33, 0]", fillcolor="#e58139"] ;
69 -> 71 ;
72 [label="gini = 0.0\nsamples = 6\nvalue = [0, 6]", fillcolor="#399de5"] ;
69 -> 72 ;
70 [label="YearsSinceLastPromotion <= 0.5\ngini = 0.498\nsamples = 87\nvalue = [41, 46]", fillcolor="#e9f4fc"] ;
67 -> 70 ;
83 [label="PercentSalaryHike <= 13.5\ngini = 0.422\nsamples = 43\nvalue = [13, 30]", fillcolor="#8fc7f0"] ;
70 -> 83 ;
85 [label="gini = 0.0\nsamples = 19\nvalue = [0, 19]", fillcolor="#399de5"] ;
83 -> 85 ;
86 [label="TrainingTimesLastYear <= 2.5\ngini = 0.497\nsamples = 24\nvalue = [13, 11]", fillcolor="#fbece1"] ;
83 -> 86 ;
89 [label="gini = 0.198\nsamples = 9\nvalue = [1, 8]", fillcolor="#52a9e8"] ;
86 -> 89 ;
90 [label="TotalWorkingYears <= 6.5\ngini = 0.32\nsamples = 15\nvalue = [12, 3]", fillcolor="#eca06a"] ;
86 -> 90 ;
91 [label="gini = 0.0\nsamples = 12\nvalue = [12, 0]", fillcolor="#e58139"] ;
90 -> 91 ;
92 [label="gini = 0.0\nsamples = 3\nvalue = [0, 3]", fillcolor="#399de5"] ;
90 -> 92 ;
84 [label="BusinessTravel <= 1.5\ngini = 0.463\nsamples = 44\nvalue = [28, 16]", fillcolor="#f4c9aa"] ;
70 -> 84 ;
87 [label="Education <= 4.5\ngini = 0.334\nsamples = 33\nvalue = [26, 7]", fillcolor="#eca36e"] ;
84 -> 87 ;
115 [label="Department <= 0.5\ngini = 0.231\nsamples = 30\nvalue = [26, 4]", fillcolor="#e99457"] ;
87 -> 115 ;
117 [label="gini = 0.071\nsamples = 27\nvalue = [26, 1]", fillcolor="#e68641"] ;
115 -> 117 ;
118 [label="gini = 0.0\nsamples = 3\nvalue = [0, 3]", fillcolor="#399de5"] ;
115 -> 118 ;
116 [label="gini = 0.0\nsamples = 3\nvalue = [0, 3]", fillcolor="#399de5"] ;
87 -> 116 ;
88 [label="WorkingTime <= 10.901\ngini = 0.298\nsamples = 11\nvalue = [2, 9]", fillcolor="#65b3eb"] ;
84 -> 88 ;
161 [label="gini = 0.0\nsamples = 9\nvalue = [0, 9]", fillcolor="#399de5"] ;
88 -> 161 ;
162 [label="gini = 0.0\nsamples = 2\nvalue = [2, 0]", fillcolor="#e58139"] ;
88 -> 162 ;
68 [label="gini = 0.0\nsamples = 18\nvalue = [18, 0]", fillcolor="#e58139"] ;
37 -> 68 ;
38 [label="NumCompaniesWorked <= 2.5\ngini = 0.245\nsamples = 14\nvalue = [2, 12]", fillcolor="#5aade9"] ;
23 -> 38 ;
143 [label="gini = 0.0\nsamples = 12\nvalue = [0, 12]", fillcolor="#399de5"] ;
38 -> 143 ;
144 [label="gini = 0.0\nsamples = 2\nvalue = [2, 0]", fillcolor="#e58139"] ;
38 -> 144 ;
24 [label="YearsSinceLastPromotion <= 4.5\ngini = 0.238\nsamples = 87\nvalue = [75, 12]", fillcolor="#e99559"] ;
22 -> 24 ;
39 [label="Age <= 23.5\ngini = 0.158\nsamples = 81\nvalue = [74, 7]", fillcolor="#e78d4c"] ;
24 -> 39 ;
75 [label="gini = 0.0\nsamples = 3\nvalue = [0, 3]", fillcolor="#399de5"] ;
39 -> 75 ;
76 [label="gini = 0.097\nsamples = 78\nvalue = [74, 4]", fillcolor="#e68844"] ;
39 -> 76 ;
40 [label="gini = 0.278\nsamples = 6\nvalue = [1, 5]", fillcolor="#61b1ea"] ;
24 -> 40 ;
6 [label="EnvironmentSatisfaction <= 1.5\ngini = 0.302\nsamples = 529\nvalue = [431, 98]", fillcolor="#eb9e66"] ;
4 -> 6 ;
11 [label="MonthlyIncome <= 42710.0\ngini = 0.493\nsamples = 86\nvalue = [48, 38]", fillcolor="#fae5d6"] ;
6 -> 11 ;
31 [label="JobSatisfaction <= 1.5\ngini = 0.355\nsamples = 39\nvalue = [30, 9]", fillcolor="#eda774"] ;
11 -> 31 ;
41 [label="JobLevel <= 1.5\ngini = 0.492\nsamples = 16\nvalue = [7, 9]", fillcolor="#d3e9f9"] ;
31 -> 41 ;
43 [label="gini = 0.0\nsamples = 9\nvalue = [0, 9]", fillcolor="#399de5"] ;
41 -> 43 ;
44 [label="gini = 0.0\nsamples = 7\nvalue = [7, 0]", fillcolor="#e58139"] ;
41 -> 44 ;
42 [label="gini = 0.0\nsamples = 23\nvalue = [23, 0]", fillcolor="#e58139"] ;
31 -> 42 ;
32 [label="PercentSalaryHike <= 14.5\ngini = 0.473\nsamples = 47\nvalue = [18, 29]", fillcolor="#b4daf5"] ;
11 -> 32 ;
33 [label="Age <= 34.5\ngini = 0.487\nsamples = 31\nvalue = [18, 13]", fillcolor="#f8dcc8"] ;
32 -> 33 ;
81 [label="gini = 0.0\nsamples = 6\nvalue = [0, 6]", fillcolor="#399de5"] ;
33 -> 81 ;
82 [label="StockOptionLevel <= 1.5\ngini = 0.403\nsamples = 25\nvalue = [18, 7]", fillcolor="#efb286"] ;
33 -> 82 ;
103 [label="gini = 0.0\nsamples = 13\nvalue = [13, 0]", fillcolor="#e58139"] ;
82 -> 103 ;
104 [label="MonthlyIncome <= 59520.0\ngini = 0.486\nsamples = 12\nvalue = [5, 7]", fillcolor="#c6e3f8"] ;
82 -> 104 ;
105 [label="gini = 0.0\nsamples = 7\nvalue = [0, 7]", fillcolor="#399de5"] ;
104 -> 105 ;
106 [label="gini = 0.0\nsamples = 5\nvalue = [5, 0]", fillcolor="#e58139"] ;
104 -> 106 ;
34 [label="gini = 0.0\nsamples = 16\nvalue = [0, 16]", fillcolor="#399de5"] ;
32 -> 34 ;
12 [label="YearsSinceLastPromotion <= 5.5\ngini = 0.234\nsamples = 443\nvalue = [383, 60]", fillcolor="#e99558"] ;
6 -> 12 ;
53 [label="YearsWithCurrManager <= 0.5\ngini = 0.166\nsamples = 339\nvalue = [308, 31]", fillcolor="#e88e4d"] ;
12 -> 53 ;
59 [label="MonthlyIncome <= 99760.0\ngini = 0.4\nsamples = 65\nvalue = [47, 18]", fillcolor="#efb185"] ;
53 -> 59 ;
61 [label="Education <= 1.5\ngini = 0.298\nsamples = 55\nvalue = [45, 10]", fillcolor="#eb9d65"] ;
59 -> 61 ;
63 [label="gini = 0.0\nsamples = 5\nvalue = [0, 5]", fillcolor="#399de5"] ;
61 -> 63 ;
64 [label="BusinessTravel <= 0.5\ngini = 0.18\nsamples = 50\nvalue = [45, 5]", fillcolor="#e88f4f"] ;
61 -> 64 ;
79 [label="gini = 0.0\nsamples = 3\nvalue = [0, 3]", fillcolor="#399de5"] ;
64 -> 79 ;
80 [label="gini = 0.081\nsamples = 47\nvalue = [45, 2]", fillcolor="#e68742"] ;
64 -> 80 ;
62 [label="PerformanceRating <= 3.5\ngini = 0.32\nsamples = 10\nvalue = [2, 8]", fillcolor="#6ab6ec"] ;
59 -> 62 ;
165 [label="gini = 0.0\nsamples = 8\nvalue = [0, 8]", fillcolor="#399de5"] ;
62 -> 165 ;
166 [label="gini = 0.0\nsamples = 2\nvalue = [2, 0]", fillcolor="#e58139"] ;
62 -> 166 ;
60 [label="MonthlyIncome <= 12860.0\ngini = 0.09\nsamples = 274\nvalue = [261, 13]", fillcolor="#e68743"] ;
53 -> 60 ;
65 [label="gini = 0.0\nsamples = 3\nvalue = [0, 3]", fillcolor="#399de5"] ;
60 -> 65 ;
66 [label="gini = 0.071\nsamples = 271\nvalue = [261, 10]", fillcolor="#e68641"] ;
60 -> 66 ;
54 [label="Age <= 36.0\ngini = 0.402\nsamples = 104\nvalue = [75, 29]", fillcolor="#efb286"] ;
12 -> 54 ;
55 [label="YearsSinceLastPromotion <= 7.5\ngini = 0.484\nsamples = 39\nvalue = [16, 23]", fillcolor="#c3e1f7"] ;
54 -> 55 ;
57 [label="TotalWorkingYears <= 15.5\ngini = 0.204\nsamples = 26\nvalue = [3, 23]", fillcolor="#53aae8"] ;
55 -> 57 ;
73 [label="gini = 0.0\nsamples = 23\nvalue = [0, 23]", fillcolor="#399de5"] ;
57 -> 73 ;
74 [label="gini = 0.0\nsamples = 3\nvalue = [3, 0]", fillcolor="#e58139"] ;
57 -> 74 ;
58 [label="gini = 0.0\nsamples = 13\nvalue = [13, 0]", fillcolor="#e58139"] ;
55 -> 58 ;
56 [label="TotalWorkingYears <= 37.0\ngini = 0.168\nsamples = 65\nvalue = [59, 6]", fillcolor="#e88e4d"] ;
54 -> 56 ;
77 [label="gini = 0.092\nsamples = 62\nvalue = [59, 3]", fillcolor="#e68743"] ;
56 -> 77 ;
78 [label="gini = 0.0\nsamples = 3\nvalue = [0, 3]", fillcolor="#399de5"] ;
56 -> 78 ;
}